// ==========================================================
// MODELO INVERSO NUEVO EXPORTADO DESDE PYTHON
// No pisa inverse_model_web.js antiguo
// ==========================================================

window.H2_INVERSE_MODEL = {
  "model_name": "Inv_4_64_64_32_ELU_standard",
  "input_features": [
    "T (\u00baC)",
    "log_m_H2",
    "log_sigma",
    "I_cell (A/m\u00b2)"
  ],
  "target": "V_cell (V)",
  "architecture": [
    64,
    64,
    32
  ],
  "activation": "elu",
  "mean_x": [
    752.7940673828125,
    -9.470210075378418,
    0.3684701919555664,
    5526.17333984375
  ],
  "std_x": [
    51.245487213134766,
    0.2776804268360138,
    1.1730670928955078,
    4809.14892578125
  ],
  "mean_y": [
    0.8999999761581421
  ],
  "std_y": [
    0.1414213627576828
  ],
  "layers": [
    {
      "W": [
        [
          0.4326019287109375,
          0.4473135769367218,
          -0.15617811679840088,
          0.43452876806259155
        ],
        [
          -0.13786087930202484,
          0.17228086292743683,
          -0.5851633548736572,
          0.3012657165527344
        ],
        [
          0.43149539828300476,
          -0.4330524504184723,
          0.4219996929168701,
          0.20024451613426208
        ],
        [
          0.17906616628170013,
          0.19852927327156067,
          0.23392528295516968,
          -0.13213397562503815
        ],
        [
          0.3562094271183014,
          0.0645567998290062,
          -0.386056512594223,
          0.24592386186122894
        ],
        [
          -0.26582565903663635,
          0.07778466492891312,
          -0.5201570391654968,
          0.34347403049468994
        ],
        [
          -0.32802584767341614,
          -0.26709112524986267,
          -0.20079252123832703,
          -0.487392783164978
        ],
        [
          0.10823744535446167,
          -0.5830896496772766,
          0.47407516837120056,
          -0.29737502336502075
        ],
        [
          0.34967267513275146,
          0.031768422573804855,
          -0.2960262894630432,
          0.3254733979701996
        ],
        [
          0.10663409531116486,
          0.4532150626182556,
          0.17927734553813934,
          -0.19966824352741241
        ],
        [
          0.12624266743659973,
          -0.22961561381816864,
          0.2032063752412796,
          0.5071697235107422
        ],
        [
          0.10422651469707489,
          -0.09393808990716934,
          0.1767703741788864,
          0.16895659267902374
        ],
        [
          0.2872181236743927,
          -0.11213044822216034,
          -0.6147691607475281,
          -0.1766197383403778
        ],
        [
          -0.23356421291828156,
          0.3274103105068207,
          -0.05790000408887863,
          0.2325993776321411
        ],
        [
          0.03649779036641121,
          0.07688184827566147,
          0.42572513222694397,
          -0.5808064937591553
        ],
        [
          0.11059606075286865,
          -0.4131952226161957,
          0.21021489799022675,
          -0.05789589136838913
        ],
        [
          0.013803193345665932,
          -0.02143913321197033,
          0.5079985857009888,
          -0.343860000371933
        ],
        [
          -0.42681601643562317,
          -0.2328796088695526,
          0.5459606051445007,
          0.1783028542995453
        ],
        [
          0.4108186662197113,
          -0.18792876601219177,
          -0.6823877096176147,
          -0.44319599866867065
        ],
        [
          -0.3070441782474518,
          0.009330765344202518,
          0.27996256947517395,
          0.2785640358924866
        ],
        [
          -0.17871390283107758,
          -0.4015159010887146,
          0.3622921109199524,
          -0.09028056263923645
        ],
        [
          0.08769501745700836,
          0.02900412678718567,
          0.19321854412555695,
          -0.4592674970626831
        ],
        [
          -0.2597874402999878,
          0.1464744210243225,
          0.21027116477489471,
          -0.1316804438829422
        ],
        [
          0.29511237144470215,
          0.41490405797958374,
          -0.5954604148864746,
          -0.35487115383148193
        ],
        [
          0.4101226031780243,
          -0.09253459423780441,
          -0.20349372923374176,
          -0.7358858585357666
        ],
        [
          -0.15502209961414337,
          0.04778517782688141,
          0.12195403128862381,
          -0.5580042600631714
        ],
        [
          0.041874777525663376,
          -0.332470566034317,
          -0.401518315076828,
          -0.5276529788970947
        ],
        [
          -0.4215378165245056,
          -0.33430591225624084,
          0.5427117347717285,
          0.13145124912261963
        ],
        [
          0.252064973115921,
          -0.35882368683815,
          -0.29171666502952576,
          -0.08875979483127594
        ],
        [
          0.08139334619045258,
          -0.24983100593090057,
          -0.23141895234584808,
          -0.3844746947288513
        ],
        [
          -0.04067244008183479,
          -0.11256954073905945,
          -0.043530724942684174,
          -0.6031163334846497
        ],
        [
          -0.3455083668231964,
          -0.29187774658203125,
          -0.15401950478553772,
          -0.6422328352928162
        ],
        [
          0.20419564843177795,
          -0.06067099794745445,
          0.35355228185653687,
          0.17294827103614807
        ],
        [
          -0.44006475806236267,
          0.39745861291885376,
          -0.5364475846290588,
          -0.284897118806839
        ],
        [
          -0.3471790552139282,
          -0.5380461812019348,
          0.17997130751609802,
          0.0070660351775586605
        ],
        [
          0.27379289269447327,
          -0.4575856924057007,
          0.3929750919342041,
          -0.22397543489933014
        ],
        [
          -0.05639686807990074,
          -0.07037690281867981,
          0.26994869112968445,
          0.467262864112854
        ],
        [
          0.5274625420570374,
          -0.39504384994506836,
          0.12706080079078674,
          -0.12739905714988708
        ],
        [
          -0.19797952473163605,
          -0.19392144680023193,
          0.5224344730377197,
          -0.4099709093570709
        ],
        [
          0.24562302231788635,
          0.2483108937740326,
          0.1981423795223236,
          -0.41625872254371643
        ],
        [
          0.3826878070831299,
          0.13039132952690125,
          -0.0012586255325004458,
          -0.5825432538986206
        ],
        [
          0.20112141966819763,
          -0.16376806795597076,
          -0.344271183013916,
          0.4512161612510681
        ],
        [
          0.20208975672721863,
          -0.33622878789901733,
          -0.2713812291622162,
          0.14726026356220245
        ],
        [
          0.35067155957221985,
          -0.02020266465842724,
          -0.31696686148643494,
          -0.2106008529663086
        ],
        [
          -0.3078271150588989,
          0.19024121761322021,
          0.563421905040741,
          -0.6342235207557678
        ],
        [
          0.16277727484703064,
          0.2583989202976227,
          0.19804179668426514,
          -0.3263099789619446
        ],
        [
          0.22914735972881317,
          0.32062360644340515,
          0.23808661103248596,
          -0.23253406584262848
        ],
        [
          -0.05629032477736473,
          0.009034418500959873,
          0.03454873710870743,
          -0.29282569885253906
        ],
        [
          0.48955899477005005,
          0.3209831118583679,
          0.05158841609954834,
          -0.14135681092739105
        ],
        [
          -0.08969554305076599,
          -0.03740161657333374,
          0.10033880174160004,
          0.283265084028244
        ],
        [
          -0.44258010387420654,
          -0.2554575800895691,
          0.42749449610710144,
          0.2633265554904938
        ],
        [
          -0.021360594779253006,
          -0.2562843859195709,
          -0.3146834373474121,
          -0.6336019039154053
        ],
        [
          -0.23668499290943146,
          0.2524878680706024,
          0.4030444920063019,
          0.18579775094985962
        ],
        [
          -0.38314977288246155,
          -0.3530527949333191,
          -0.08954057842493057,
          0.6243506073951721
        ],
        [
          -0.07222592830657959,
          -0.057904940098524094,
          0.3382304012775421,
          -0.16886775195598602
        ],
        [
          -0.36860647797584534,
          0.5097202062606812,
          -0.6880001425743103,
          -0.21871061623096466
        ],
        [
          -0.49867862462997437,
          0.24858441948890686,
          0.1558666080236435,
          0.03522733971476555
        ],
        [
          -0.23140084743499756,
          -0.5433323979377747,
          -0.42493703961372375,
          0.5038284659385681
        ],
        [
          0.13340209424495697,
          0.46865972876548767,
          0.29277434945106506,
          0.14391964673995972
        ],
        [
          0.02258753404021263,
          -0.34640783071517944,
          -0.43580418825149536,
          -0.6503045558929443
        ],
        [
          0.131941020488739,
          -0.0467420294880867,
          -0.10296692699193954,
          -0.2779791057109833
        ],
        [
          -0.10218596458435059,
          -0.2692415714263916,
          -0.3324688673019409,
          0.24758785963058472
        ],
        [
          -0.0890507623553276,
          0.27557340264320374,
          -0.08959135413169861,
          -0.5025604963302612
        ],
        [
          -0.09271278232336044,
          -0.20336394011974335,
          -0.13044670224189758,
          -0.7283850908279419
        ]
      ],
      "b": [
        0.48166021704673767,
        -0.37307125329971313,
        0.18528832495212555,
        0.2591109573841095,
        0.49250438809394836,
        -0.40710458159446716,
        0.2163267433643341,
        -0.46368029713630676,
        0.3218918442726135,
        0.6104972958564758,
        -0.14866448938846588,
        0.17935095727443695,
        -0.1963859349489212,
        -0.5228424072265625,
        0.3135730028152466,
        -0.8494298458099365,
        0.42107877135276794,
        0.36288154125213623,
        0.4315289855003357,
        -0.0802055224776268,
        -0.6802599430084229,
        0.12346352636814117,
        0.4424683749675751,
        -0.5347546935081482,
        -0.09902070462703705,
        -0.4549902081489563,
        -0.08413999527692795,
        -0.5174623727798462,
        -0.4127280116081238,
        -0.3233431875705719,
        -0.5627346038818359,
        0.22508785128593445,
        0.3790217936038971,
        -0.20692992210388184,
        -0.33177781105041504,
        -0.45874184370040894,
        -0.5706980228424072,
        -0.6951373815536499,
        0.25078216195106506,
        -0.24347583949565887,
        -0.37583646178245544,
        0.019672617316246033,
        -0.23372161388397217,
        -0.24792760610580444,
        -0.00040786011959426105,
        -0.06097336858510971,
        -0.1682007759809494,
        -0.32772064208984375,
        -0.44256097078323364,
        0.4749374985694885,
        -0.38511598110198975,
        0.07638835906982422,
        -0.16033142805099487,
        0.001366880489513278,
        0.587216854095459,
        0.08795236796140671,
        -0.6720560789108276,
        0.09156285971403122,
        0.7161409258842468,
        0.03463032469153404,
        0.22732089459896088,
        0.5344090461730957,
        -0.2880677580833435,
        0.02560124173760414
      ]
    },
    {
      "W": [
        [
          -0.15041691064834595,
          -0.10753961652517319,
          0.004874397534877062,
          -0.028820620849728584,
          -0.14212672412395477,
          -0.1843452751636505,
          -0.0910857543349266,
          -0.11554780602455139,
          -0.1572842001914978,
          -0.045965343713760376,
          0.021442139521241188,
          -0.05564756691455841,
          -0.1371699869632721,
          -0.012986409477889538,
          0.0607428252696991,
          -0.0938032865524292,
          -0.04445750638842583,
          0.061542171984910965,
          -0.08352971822023392,
          -0.03459186106920242,
          0.011124378070235252,
          -0.04279683157801628,
          -0.03856894001364708,
          -0.13015474379062653,
          -0.10663766413927078,
          -0.11027690768241882,
          0.1003364846110344,
          -0.015517028048634529,
          0.008490179665386677,
          0.049728456884622574,
          -0.004987345077097416,
          0.04881354048848152,
          0.02845078520476818,
          0.006518131587654352,
          -0.03995349258184433,
          -0.008942346088588238,
          0.010033288039267063,
          -0.05622600391507149,
          -0.07618231326341629,
          0.07299788296222687,
          -0.06801921129226685,
          -0.11038251966238022,
          -0.0832684114575386,
          0.03715576231479645,
          0.028428353369235992,
          -0.01806095615029335,
          -0.07223337143659592,
          -0.07369361072778702,
          -0.16873382031917572,
          -0.03717793896794319,
          0.20239858329296112,
          0.034155648201704025,
          -0.07044564187526703,
          -0.008783712983131409,
          -0.12246450036764145,
          -0.08660323917865753,
          0.1069548949599266,
          0.1099868193268776,
          0.04780784994363785,
          -0.14783301949501038,
          0.05926262587308884,
          -0.08500462770462036,
          0.019160978496074677,
          0.07620611786842346
        ],
        [
          0.13132546842098236,
          0.5700267553329468,
          -0.20117980241775513,
          -0.1015251874923706,
          0.2004641890525818,
          0.35503819584846497,
          0.052600156515836716,
          -0.18082378804683685,
          0.20269091427326202,
          0.037811048328876495,
          -0.023341849446296692,
          -0.15630416572093964,
          0.149601548910141,
          0.20323623716831207,
          -0.2980363070964813,
          -0.10525921732187271,
          -0.5096416473388672,
          -0.1690526008605957,
          0.11227736622095108,
          0.041736602783203125,
          -0.10671254992485046,
          -0.268241286277771,
          -0.2049996256828308,
          0.10786601155996323,
          -0.06683413684368134,
          -0.017084982246160507,
          0.09953790158033371,
          -0.2273598611354828,
          0.1605432629585266,
          0.1041010394692421,
          0.07694823294878006,
          0.01243737991899252,
          -0.16885258257389069,
          0.08623283356428146,
          -0.1697162389755249,
          -0.21874797344207764,
          -0.02481898106634617,
          -0.10805609822273254,
          -0.3644314408302307,
          0.05017610639333725,
          0.10009849816560745,
          0.14078661799430847,
          0.03153962641954422,
          0.019523583352565765,
          -0.26355651021003723,
          0.0024635749869048595,
          0.10640662163496017,
          -0.006953036412596703,
          0.07060851901769638,
          0.01264815405011177,
          -0.3056476414203644,
          0.1633821278810501,
          -0.0047659180127084255,
          -0.008834300562739372,
          -0.2641949951648712,
          0.06999342888593674,
          -0.026710662990808487,
          0.11774104088544846,
          -0.015472570434212685,
          0.21010230481624603,
          0.09159880131483078,
          -0.03660576418042183,
          -0.09033037722110748,
          0.11917165666818619
        ],
        [
          0.05445358157157898,
          -0.13713978230953217,
          -0.09449614584445953,
          -0.21138595044612885,
          -0.18043209612369537,
          -0.007314993999898434,
          0.08693588525056839,
          -0.0007360164890997112,
          -0.09090957790613174,
          0.08627897500991821,
          -0.04795251041650772,
          -0.1344248652458191,
          0.11496465653181076,
          0.05308254808187485,
          0.029203034937381744,
          -0.06819380819797516,
          0.006740703713148832,
          -0.14514373242855072,
          -0.07801652699708939,
          -0.06670352816581726,
          0.15311677753925323,
          0.0812997817993164,
          0.0994570255279541,
          0.14648859202861786,
          0.14958781003952026,
          0.12736032903194427,
          0.038739562034606934,
          0.031981151551008224,
          0.01763741672039032,
          0.01610795222222805,
          0.19018365442752838,
          0.08544717729091644,
          -0.02547631971538067,
          -0.056038934737443924,
          -0.01832432486116886,
          -0.018015416339039803,
          -0.05574265867471695,
          -0.11871197819709778,
          0.04245834797620773,
          -0.015674646943807602,
          0.13275428116321564,
          0.11145716160535812,
          0.0701274424791336,
          0.14855636656284332,
          0.09368384629487991,
          -0.005001709330826998,
          -0.01877346821129322,
          0.0861002579331398,
          0.08039060235023499,
          0.02583102136850357,
          -0.03412472829222679,
          0.030452881008386612,
          -0.02573484554886818,
          -0.044276390224695206,
          -0.028669534251093864,
          0.06249641627073288,
          0.12844346463680267,
          0.087557353079319,
          -0.1925003081560135,
          0.024831950664520264,
          -0.0360427163541317,
          -0.0594048947095871,
          0.06591150164604187,
          -0.028693564236164093
        ],
        [
          -0.02972646988928318,
          -0.16183270514011383,
          -0.14810797572135925,
          -0.12903116643428802,
          0.004082761239260435,
          -0.17579686641693115,
          0.11231327056884766,
          -0.019130250439047813,
          -0.146569162607193,
          0.10216284543275833,
          -0.09025897085666656,
          0.013662452809512615,
          -0.03528711572289467,
          -0.07894941419363022,
          0.07301920652389526,
          -0.01991967298090458,
          0.038880664855241776,
          0.0825243592262268,
          -0.036071568727493286,
          -0.0336698479950428,
          -0.021017391234636307,
          0.10625413060188293,
          0.17308318614959717,
          -0.08949659019708633,
          -0.18259546160697937,
          -0.012124252505600452,
          -0.13369134068489075,
          0.15880730748176575,
          -0.0953768640756607,
          -0.03510584682226181,
          -0.09964045882225037,
          0.01963641121983528,
          0.07891387492418289,
          -0.002304286230355501,
          0.1313866674900055,
          0.05900558829307556,
          0.03481728956103325,
          -0.12380358576774597,
          -0.005409646313637495,
          0.02968764491379261,
          -0.08428525924682617,
          -0.04020772874355316,
          -0.08736937493085861,
          -0.15444043278694153,
          0.07321536540985107,
          0.02621656470000744,
          -0.0008113160729408264,
          0.14984193444252014,
          0.0015524569898843765,
          0.11167405545711517,
          0.07960210740566254,
          -0.1490686684846878,
          -0.026236891746520996,
          -0.08702347427606583,
          -0.08780339360237122,
          -0.04086508974432945,
          -0.07895521819591522,
          -0.11744692921638489,
          -0.089586041867733,
          -0.17065830528736115,
          -0.110680490732193,
          0.06964132189750671,
          0.08905547112226486,
          -0.06312906742095947
        ],
        [
          -0.07179146260023117,
          0.4882182478904724,
          -0.2025783360004425,
          -0.2291216403245926,
          0.0791444331407547,
          0.2967309355735779,
          0.08653844892978668,
          0.03362831473350525,
          -0.023728443309664726,
          -0.023875730112195015,
          -0.2494429647922516,
          -0.19253408908843994,
          0.24041958153247833,
          0.13724596798419952,
          -0.3123418688774109,
          0.11274567991495132,
          -0.5762763023376465,
          -0.30951815843582153,
          -0.0016797054558992386,
          -0.1236785426735878,
          -0.034503042697906494,
          -0.23046284914016724,
          0.03698287904262543,
          0.31359508633613586,
          -0.05100299045443535,
          0.12583628296852112,
          -0.007205551024526358,
          -0.1528371274471283,
          0.039861585944890976,
          -0.04755154252052307,
          -0.047836389392614365,
          0.03965047001838684,
          -0.194234699010849,
          0.26226675510406494,
          0.05004771798849106,
          -0.14285847544670105,
          -0.18648040294647217,
          0.11103419959545135,
          -0.1974697858095169,
          0.028094252571463585,
          0.0648815855383873,
          -0.1174127385020256,
          0.03879520669579506,
          0.2833184003829956,
          -0.14713722467422485,
          0.00975754577666521,
          -0.08627814054489136,
          0.0603298544883728,
          0.09571219235658646,
          -0.23560306429862976,
          -0.18968792259693146,
          0.11809227615594864,
          -0.24913854897022247,
          -0.0011895860079675913,
          -0.33234772086143494,
          0.06258843094110489,
          0.15297310054302216,
          0.1372382938861847,
          -0.1773480772972107,
          0.017628615722060204,
          -0.133142352104187,
          -0.056913990527391434,
          0.0445394441485405,
          -0.017522402107715607
        ],
        [
          -0.015227088704705238,
          0.03121892362833023,
          0.15209060907363892,
          0.06038104370236397,
          -0.13446339964866638,
          0.05179954320192337,
          -0.033682212233543396,
          0.0808195099234581,
          0.008039898239076138,
          -0.5493027567863464,
          0.1763240247964859,
          -0.037181224673986435,
          0.11232665181159973,
          0.11301100999116898,
          -0.10059767961502075,
          0.375247597694397,
          -0.07959513366222382,
          -0.10460575670003891,
          -0.1244121640920639,
          0.07142960280179977,
          0.09428203850984573,
          -0.03432402014732361,
          -0.6691522002220154,
          0.23692330718040466,
          -0.05202571675181389,
          0.06335560977458954,
          -0.01043100655078888,
          0.12687215209007263,
          0.15941284596920013,
          -0.11902043223381042,
          0.00662610400468111,
          -0.06880127638578415,
          0.12048123776912689,
          0.2517053186893463,
          -0.009102416224777699,
          0.2077297866344452,
          0.14637325704097748,
          0.1735529899597168,
          -0.13920775055885315,
          -0.06730039417743683,
          0.061200790107250214,
          0.11605250835418701,
          0.12341482192277908,
          0.09908615797758102,
          -0.2483569234609604,
          0.011293296702206135,
          -0.1279875636100769,
          0.014551158994436264,
          -0.02267550118267536,
          -0.09837128967046738,
          0.14241190254688263,
          -0.0006702560931444168,
          -0.007153250742703676,
          0.14770914614200592,
          -0.056608304381370544,
          0.25927889347076416,
          0.1611919403076172,
          0.11564543098211288,
          -0.1748003512620926,
          -0.01825394295156002,
          0.024758363142609596,
          -0.11295017600059509,
          0.04605419188737869,
          -0.2202141135931015
        ],
        [
          0.01891748048365116,
          0.04251602292060852,
          0.11988220363855362,
          0.04566989839076996,
          -0.04563866928219795,
          0.16146478056907654,
          -0.018604304641485214,
          0.14627967774868011,
          0.13798126578330994,
          -0.3336232602596283,
          0.20431004464626312,
          0.14493128657341003,
          0.040838100016117096,
          -0.07685358077287674,
          -0.12452637404203415,
          0.14898091554641724,
          -0.05886216089129448,
          0.10090668499469757,
          0.026662904769182205,
          0.09424096345901489,
          0.09116958826780319,
          0.010206716135144234,
          -0.11954733729362488,
          -0.027547918260097504,
          -0.20354025065898895,
          -0.12047476321458817,
          0.05163474753499031,
          0.0027365300338715315,
          -0.03162490949034691,
          0.061744797974824905,
          -0.017918378114700317,
          0.0740588903427124,
          -0.0684458538889885,
          0.04966923967003822,
          0.17743727564811707,
          0.19713082909584045,
          0.15172730386257172,
          0.16481684148311615,
          0.04679923132061958,
          0.05483014136552811,
          -0.1344866007566452,
          0.0689643993973732,
          0.26711520552635193,
          -0.07993166893720627,
          -0.2843574285507202,
          -0.008861258625984192,
          -0.00914508756250143,
          0.020393280312418938,
          -0.03260407969355583,
          0.02342405915260315,
          0.2355664074420929,
          -0.12903103232383728,
          -0.0800572857260704,
          0.14338567852973938,
          -0.08906812965869904,
          0.27076780796051025,
          -0.06898415088653564,
          0.04446243494749069,
          -0.08891566842794418,
          -0.13813573122024536,
          -0.1074109897017479,
          0.11849365383386612,
          0.05599894002079964,
          -0.18167641758918762
        ],
        [
          -0.06306829303503036,
          -0.07872434705495834,
          0.00489741750061512,
          0.030297843739390373,
          -0.10007477551698685,
          -0.19615694880485535,
          0.06654819846153259,
          -0.14892606437206268,
          -0.12519881129264832,
          0.17573490738868713,
          -0.0016407642979174852,
          -0.05256815254688263,
          -0.12136445939540863,
          -0.11685329675674438,
          0.09073825180530548,
          -0.19137872755527496,
          -0.018752319738268852,
          0.03613137826323509,
          0.009902752935886383,
          0.1324375867843628,
          -0.2226887345314026,
          0.08833015710115433,
          0.15877240896224976,
          -0.13416199386119843,
          -0.07596452534198761,
          -0.18544551730155945,
          0.04305735230445862,
          -0.09725582599639893,
          -0.19464649260044098,
          -0.09946221113204956,
          -0.21726055443286896,
          0.18944835662841797,
          -0.009756137616932392,
          -0.02979428693652153,
          -0.0911455973982811,
          -0.07200496643781662,
          -0.1002461165189743,
          -0.3367655873298645,
          0.046166062355041504,
          -0.05632591247558594,
          -0.05503397434949875,
          -0.1379835158586502,
          -0.2504613399505615,
          -0.1844569593667984,
          0.12536202371120453,
          0.00260654604062438,
          -0.04436003416776657,
          -0.10334903001785278,
          -0.11926500499248505,
          0.2034277617931366,
          0.10700405389070511,
          0.0868341326713562,
          0.19094540178775787,
          0.20027314126491547,
          0.02730880118906498,
          -0.11842311173677444,
          -0.018858404830098152,
          0.06483729928731918,
          0.19478604197502136,
          -0.07351560890674591,
          0.037975043058395386,
          0.040689751505851746,
          0.02089519053697586,
          -0.013195592910051346
        ],
        [
          -0.23922936618328094,
          -0.14978882670402527,
          -0.1667419970035553,
          -0.007101287599653006,
          -0.28890272974967957,
          -0.08807161450386047,
          0.05947589501738548,
          -0.06952120363712311,
          -0.2072676718235016,
          -0.136942058801651,
          -0.17745693027973175,
          -0.16640490293502808,
          0.04138850048184395,
          -0.01740480586886406,
          0.058132104575634,
          0.03341257572174072,
          0.05347196385264397,
          0.012697987258434296,
          0.04611744359135628,
          -0.07484380900859833,
          -0.04922404885292053,
          0.0670647993683815,
          -0.07135655730962753,
          0.14778780937194824,
          0.20170554518699646,
          0.3774012625217438,
          0.209804967045784,
          0.09588108956813812,
          0.08235543966293335,
          0.01792726293206215,
          0.49183914065361023,
          -0.012652283534407616,
          -0.14399845898151398,
          0.1017330214381218,
          0.12304769456386566,
          0.03461223468184471,
          0.036860182881355286,
          -0.1028723269701004,
          -0.0033193540293723345,
          0.22255122661590576,
          0.1500871628522873,
          -0.1284143030643463,
          -0.052449483424425125,
          0.09462827444076538,
          0.26431894302368164,
          0.09017691016197205,
          0.14522884786128998,
          0.20497150719165802,
          0.14898478984832764,
          -0.11488591879606247,
          -0.01645248383283615,
          0.16343289613723755,
          0.0828084871172905,
          0.03630104288458824,
          0.04609590023756027,
          -0.07481448352336884,
          -0.05537842586636543,
          -0.030214712023735046,
          -0.11860011518001556,
          0.05143820121884346,
          -0.02928593009710312,
          -0.10167767852544785,
          0.1899605244398117,
          0.14908556640148163
        ],
        [
          -0.10989101231098175,
          0.2649703323841095,
          -0.16028207540512085,
          -0.14121143519878387,
          0.0823320671916008,
          0.3550727069377899,
          0.13498421013355255,
          -0.04918142035603523,
          -0.020959720015525818,
          -0.01564370095729828,
          -0.27295660972595215,
          -0.152054101228714,
          0.2110266387462616,
          0.00931707862764597,
          -0.38017669320106506,
          0.16152605414390564,
          -0.28442662954330444,
          -0.2825826406478882,
          0.15081965923309326,
          -0.11194045841693878,
          -0.008519497700035572,
          -0.0018653884762898088,
          -0.09105498343706131,
          0.293252557516098,
          -0.03049548529088497,
          0.13059580326080322,
          0.023519471287727356,
          -0.11611295491456985,
          0.19226980209350586,
          0.02794823795557022,
          0.04402899369597435,
          0.09218597412109375,
          -0.2975403070449829,
          0.10874795913696289,
          0.061696458607912064,
          -0.07915571331977844,
          -0.15870629251003265,
          -0.015025036409497261,
          -0.23808956146240234,
          0.0401194766163826,
          0.05667548626661301,
          0.028993314132094383,
          0.10229901224374771,
          0.16517825424671173,
          -0.19301550090312958,
          0.04845871031284332,
          0.037883248180150986,
          0.11778570711612701,
          0.049732755869627,
          -0.17489390075206757,
          -0.2881166338920593,
          -0.04289707913994789,
          -0.21287840604782104,
          -0.06647935509681702,
          -0.3218362331390381,
          0.03601519763469696,
          0.17644049227237701,
          0.01544998399913311,
          -0.10842566937208176,
          -0.06430627405643463,
          -0.11291492730379105,
          -0.12470109760761261,
          0.2591904103755951,
          0.024873893707990646
        ],
        [
          -0.2103746086359024,
          0.08506766706705093,
          -0.0600200854241848,
          -0.0389123298227787,
          -0.06139131262898445,
          0.19304315745830536,
          -0.03094068169593811,
          0.018505780026316643,
          -0.011239156126976013,
          -0.16494117677211761,
          0.056104544550180435,
          0.05949445068836212,
          0.09597720205783844,
          -0.0507068894803524,
          0.06741412729024887,
          0.0637449398636818,
          -0.06431057304143906,
          0.04354933649301529,
          0.13342887163162231,
          0.013980397954583168,
          0.08738724142313004,
          -0.03901823237538338,
          -0.04659154638648033,
          0.1254241019487381,
          -0.09963436424732208,
          -0.04576481133699417,
          -0.1047939732670784,
          0.05845526233315468,
          0.11885716021060944,
          0.0034686666913330555,
          -0.028364112600684166,
          -0.012679456733167171,
          -0.017167892307043076,
          -0.06961183249950409,
          0.09330424666404724,
          -0.009603566490113735,
          -0.048973288387060165,
          0.11430232971906662,
          -0.006690644659101963,
          -0.11739993840456009,
          0.11216996610164642,
          -0.05083660036325455,
          -0.010807814076542854,
          0.20311619341373444,
          -0.2054063379764557,
          -0.1108197569847107,
          -0.10737483948469162,
          -0.0042866808362305164,
          -0.05614051595330238,
          -0.10670570284128189,
          0.005642191972583532,
          -0.14062583446502686,
          -0.2503032982349396,
          -0.0524141751229763,
          -0.005621078424155712,
          0.10161043703556061,
          -0.09443359822034836,
          0.022577574476599693,
          -0.036049745976924896,
          0.02857302874326706,
          -0.09001798182725906,
          -0.04659685492515564,
          -0.1449410766363144,
          -0.12017000466585159
        ],
        [
          0.014389264397323132,
          -0.21721108257770538,
          0.038551270961761475,
          -0.024322275072336197,
          -0.06845565885305405,
          -0.26249468326568604,
          0.11844874173402786,
          -0.04087177291512489,
          -0.13839669525623322,
          0.0750347226858139,
          -0.06817194819450378,
          0.10477356612682343,
          0.08033041656017303,
          -0.15630698204040527,
          0.1646774262189865,
          -0.062368910759687424,
          -0.0027147249784320593,
          0.09952877461910248,
          0.07882700860500336,
          -0.0848509669303894,
          -0.06219516694545746,
          0.06028728559613228,
          0.1276964247226715,
          -0.04712224379181862,
          0.2339964210987091,
          0.029021130874753,
          0.21370814740657806,
          -0.08570807427167892,
          -0.04677671939134598,
          0.038494572043418884,
          0.24865154922008514,
          0.1024206355214119,
          -0.007444922346621752,
          -0.1431572288274765,
          -0.05000767484307289,
          -0.09549681097269058,
          -0.24639904499053955,
          0.045534633100032806,
          0.18795548379421234,
          0.29546377062797546,
          0.06557931751012802,
          -0.20163096487522125,
          -0.18286505341529846,
          0.12114239484071732,
          0.4773000478744507,
          0.298506498336792,
          0.21009312570095062,
          0.12534606456756592,
          0.02623581700026989,
          0.034904010593891144,
          -0.1512952446937561,
          0.18949244916439056,
          -0.10232198983430862,
          -0.2492699921131134,
          -0.03742033243179321,
          -0.14803765714168549,
          -0.1186119094491005,
          -0.20935043692588806,
          -0.02277752012014389,
          0.020831000059843063,
          0.08361084014177322,
          0.018988069146871567,
          0.11933892220258713,
          0.24045389890670776
        ],
        [
          -0.1363595426082611,
          -0.192789688706398,
          -0.017732325941324234,
          0.010120559483766556,
          -0.24407632648944855,
          0.03463837504386902,
          0.08089743554592133,
          -0.08184156566858292,
          -0.1825345754623413,
          0.16033139824867249,
          0.010234033688902855,
          0.022869626060128212,
          -0.185545414686203,
          0.12693345546722412,
          -0.027200322598218918,
          0.0026787228416651487,
          -0.05336272716522217,
          0.13189935684204102,
          -0.12580463290214539,
          0.14305631816387177,
          -0.07776525616645813,
          0.06603004038333893,
          0.05761713907122612,
          -0.2590149939060211,
          -0.028384990990161896,
          0.072454534471035,
          -0.08255831152200699,
          0.07954619079828262,
          -0.1052444577217102,
          0.0726064071059227,
          0.07375528663396835,
          0.026095272973179817,
          -0.0893229991197586,
          -0.24156516790390015,
          -0.03406989201903343,
          -0.16138271987438202,
          0.08633682876825333,
          -0.2645418643951416,
          0.04647243022918701,
          0.18492674827575684,
          0.0926956906914711,
          -0.08125437796115875,
          -0.32887977361679077,
          0.036600179970264435,
          0.14014416933059692,
          -0.037940431386232376,
          0.1387864202260971,
          -0.05425884947180748,
          -0.0590941421687603,
          0.11317870020866394,
          0.05014265701174736,
          -0.1334531158208847,
          0.2052374929189682,
          -0.010198060423135757,
          0.021463509649038315,
          -0.2500721514225006,
          0.12789678573608398,
          -0.13585889339447021,
          -0.06011509150266647,
          -0.15602874755859375,
          -0.04111889749765396,
          -0.052309926599264145,
          -0.20252427458763123,
          0.08104462176561356
        ],
        [
          0.01534805167466402,
          -0.028722256422042847,
          -0.08690866082906723,
          0.0007455141749233007,
          0.0701700747013092,
          0.06305530667304993,
          -0.10754276067018509,
          0.09374981373548508,
          -0.01739633083343506,
          0.03909610956907272,
          0.08945933729410172,
          0.09896134585142136,
          -0.0472935326397419,
          0.04912392795085907,
          -0.08561791479587555,
          -0.002300962572917342,
          -0.07673744112253189,
          -0.038573674857616425,
          -0.003969750367105007,
          -0.047883883118629456,
          -0.01392520684748888,
          0.003353910753503442,
          0.11718760430812836,
          0.04203803092241287,
          0.06950198113918304,
          0.05792252719402313,
          0.11607503145933151,
          -0.014313478022813797,
          0.008247547782957554,
          0.020937124267220497,
          -0.06387203931808472,
          -0.11285718530416489,
          0.0024988343939185143,
          -0.08352598547935486,
          0.01160344760864973,
          -0.03935246169567108,
          0.027667075395584106,
          0.06524650007486343,
          -0.04019562527537346,
          0.12006615847349167,
          0.09514762461185455,
          -0.10155924409627914,
          -0.09716347604990005,
          -0.10221090167760849,
          -0.04071184992790222,
          -0.04441254958510399,
          0.014663953334093094,
          -0.028776900842785835,
          -0.045846711844205856,
          -0.06014343723654747,
          -0.05138136073946953,
          0.12065944075584412,
          -0.08689789474010468,
          -0.06393682211637497,
          0.05533726513385773,
          -0.06771589070558548,
          0.07036267220973969,
          0.10786822438240051,
          0.07926636189222336,
          -0.08185829222202301,
          0.08192193508148193,
          0.0891101285815239,
          -0.11368242651224136,
          0.10975188761949539
        ],
        [
          0.04036162421107292,
          0.43108004331588745,
          -0.08625389635562897,
          -0.17727819085121155,
          -0.18764396011829376,
          0.4288584291934967,
          0.07952596247196198,
          -0.1501917690038681,
          -0.03828303888440132,
          -0.20987005531787872,
          -0.019939467310905457,
          -0.07598931342363358,
          0.18293574452400208,
          0.1857765018939972,
          -0.3135318160057068,
          0.08835406601428986,
          -0.4947406053543091,
          -0.325600266456604,
          0.020205484703183174,
          -0.007901799865067005,
          0.005888603162020445,
          -0.11838596314191818,
          -0.06303626298904419,
          0.4683786928653717,
          -0.054847352206707,
          0.16078265011310577,
          0.1056741252541542,
          -0.09167203307151794,
          0.1466771364212036,
          0.0681757926940918,
          -0.0069687459617853165,
          0.013876876793801785,
          -0.3119496703147888,
          0.20474176108837128,
          -0.05969779193401337,
          -0.17792314291000366,
          -0.041610363870859146,
          0.024884110316634178,
          -0.3488493263721466,
          0.19043710827827454,
          0.049401216208934784,
          -0.012898187153041363,
          0.09417007118463516,
          0.057732537388801575,
          -0.0037896735593676567,
          0.1957532912492752,
          -0.01976468600332737,
          0.11524520814418793,
          0.28049981594085693,
          -0.10899516940116882,
          -0.20942702889442444,
          0.11202998459339142,
          -0.0001792039693100378,
          -0.2503586709499359,
          -0.36375370621681213,
          0.1893291473388672,
          0.25927677750587463,
          -0.02194715104997158,
          -0.2745109796524048,
          0.11829160153865814,
          -0.042610540986061096,
          -0.027802081778645515,
          0.22735324501991272,
          0.0328022800385952
        ],
        [
          -0.1748408079147339,
          0.37622353434562683,
          -0.1690710037946701,
          -0.3233051896095276,
          -0.07181371748447418,
          0.5084888935089111,
          0.16373756527900696,
          -0.21896781027317047,
          0.03200274333357811,
          -0.03519519791007042,
          -0.07354507595300674,
          -0.11178486049175262,
          0.3673342168331146,
          -0.054869115352630615,
          -0.3879566192626953,
          0.0994529202580452,
          -0.6468356251716614,
          -0.40252068638801575,
          0.12489214539527893,
          -0.0024091654922813177,
          -0.10160043835639954,
          -0.15481796860694885,
          -0.047320589423179626,
          0.2578912675380707,
          -0.06764160096645355,
          0.10869325697422028,
          0.2265985608100891,
          -0.24906045198440552,
          0.06842716783285141,
          0.05384672060608864,
          0.058434996753931046,
          0.17930282652378082,
          -0.2593069076538086,
          0.12024176865816116,
          0.07853157818317413,
          -0.13249248266220093,
          -0.18071575462818146,
          0.010125625878572464,
          -0.3342546224594116,
          0.01708458736538887,
          -0.046314891427755356,
          0.08184564858675003,
          0.13276173174381256,
          0.19182582199573517,
          -0.33248192071914673,
          -0.1506403088569641,
          0.021240051835775375,
          0.2355806678533554,
          -0.03742114454507828,
          -0.11500991135835648,
          -0.325956255197525,
          0.09844750910997391,
          -0.14744804799556732,
          0.0764954537153244,
          -0.34192684292793274,
          0.1930922120809555,
          0.04212961718440056,
          0.06434180587530136,
          -0.09045269340276718,
          0.046542659401893616,
          -0.0313824787735939,
          -0.04982849955558777,
          0.11760611087083817,
          0.05247240886092186
        ],
        [
          -0.08320306241512299,
          -0.2378614991903305,
          -0.12927331030368805,
          0.04559321328997612,
          -0.2934195399284363,
          -0.1551915854215622,
          0.014396793209016323,
          -0.09859637171030045,
          -0.10243603587150574,
          0.15332761406898499,
          0.01002960279583931,
          -0.06675462424755096,
          -0.179239884018898,
          0.05737733840942383,
          0.17755068838596344,
          -0.14010117948055267,
          0.0017677480354905128,
          0.05967332050204277,
          -0.2114279717206955,
          0.03245581313967705,
          0.01708732545375824,
          -0.01758694462478161,
          0.07890518009662628,
          -0.20287935435771942,
          0.14092308282852173,
          0.16217447817325592,
          -0.010697240941226482,
          0.10867670178413391,
          -0.14465342462062836,
          -0.13947418332099915,
          0.08549299836158752,
          0.06879158318042755,
          0.10010316222906113,
          -0.06177694723010063,
          0.04452383518218994,
          0.03003714419901371,
          0.03787554055452347,
          -0.22684495151042938,
          0.1664556860923767,
          0.04208223149180412,
          0.18256710469722748,
          -0.24295175075531006,
          -0.3776592016220093,
          -0.0426483117043972,
          0.2481447160243988,
          0.0986696258187294,
          0.10139943659305573,
          0.05281611159443855,
          0.10238437354564667,
          -0.06041840836405754,
          0.10673341155052185,
          0.02598700113594532,
          0.09281947463750839,
          -0.11974584311246872,
          -0.030667562037706375,
          -0.18201276659965515,
          0.015500159002840519,
          -0.38756561279296875,
          -0.0275165606290102,
          0.014224773272871971,
          -0.10044747591018677,
          -0.2064248025417328,
          -0.031081227585673332,
          0.03169732913374901
        ],
        [
          -0.1130296140909195,
          -0.17119789123535156,
          -0.05506758764386177,
          0.046204037964344025,
          -0.12222239375114441,
          -0.20035381615161896,
          -0.09415023028850555,
          -0.04494807496666908,
          -0.17979000508785248,
          0.15391476452350616,
          -0.053539544343948364,
          0.0236579030752182,
          -0.03957710787653923,
          0.06596299260854721,
          0.11671721190214157,
          -0.20601432025432587,
          0.1199287697672844,
          -0.04310176521539688,
          -0.09466267377138138,
          -0.02786662057042122,
          -0.10547149926424026,
          0.016924209892749786,
          0.22634463012218475,
          -0.08620171993970871,
          0.07440344989299774,
          0.12696382403373718,
          -0.1424153745174408,
          -0.0004803769988939166,
          0.034076791256666183,
          0.08440053462982178,
          -0.07248850166797638,
          0.009865639731287956,
          -0.06642752140760422,
          -0.1657690852880478,
          -0.08585754781961441,
          -0.14890490472316742,
          -0.17240020632743835,
          -0.18213851749897003,
          0.09744463860988617,
          0.16629816591739655,
          -0.05284455418586731,
          -0.2165888547897339,
          -0.19212348759174347,
          -0.15365654230117798,
          0.28626859188079834,
          0.26750144362449646,
          0.1341845840215683,
          -0.08432123064994812,
          0.014612297527492046,
          0.0385025292634964,
          0.1176699846982956,
          -0.08086791634559631,
          0.011381823569536209,
          -0.06250638514757156,
          0.049855295568704605,
          -0.21772173047065735,
          -0.01645074039697647,
          -0.26204416155815125,
          0.14476171135902405,
          -0.03128660097718239,
          0.06612790375947952,
          0.0052519370801746845,
          -0.06404333561658859,
          0.03955378755927086
        ],
        [
          -0.12265351414680481,
          0.08511324226856232,
          -0.192067950963974,
          -0.02299290895462036,
          -0.2868717610836029,
          0.05886593088507652,
          0.030625760555267334,
          -0.029872920364141464,
          -0.25007060170173645,
          0.024205282330513,
          -0.16384488344192505,
          -0.14368046820163727,
          0.0643145889043808,
          0.01666862517595291,
          0.07234988361597061,
          0.19462618231773376,
          -0.034436557441949844,
          -0.0004924172535538673,
          -0.05734981223940849,
          -0.07645107060670853,
          0.05708491429686546,
          -0.06827736645936966,
          -0.1162143126130104,
          0.01907787099480629,
          0.013246082700788975,
          0.3927742838859558,
          0.1679619401693344,
          0.12344872206449509,
          0.17569543421268463,
          0.10225237160921097,
          0.4667999744415283,
          -0.02899191342294216,
          -0.048632390797138214,
          -0.06423242390155792,
          0.09580100327730179,
          0.03964123874902725,
          0.0825914591550827,
          0.08103014528751373,
          -0.055527638643980026,
          0.23780757188796997,
          0.2182428240776062,
          -0.04495410993695259,
          -0.007462953682988882,
          0.31813180446624756,
          0.2514566481113434,
          0.1515689492225647,
          0.18104198575019836,
          0.2783671021461487,
          0.19746194779872894,
          -0.18465806543827057,
          0.05737276002764702,
          0.19973540306091309,
          0.04150881618261337,
          -0.13419824838638306,
          -0.07673525810241699,
          0.0426480807363987,
          0.09960056841373444,
          -0.10368072986602783,
          -0.06849216669797897,
          0.15295790135860443,
          -0.08793474733829498,
          -0.13805431127548218,
          0.10259374976158142,
          0.021542277187108994
        ],
        [
          0.04005538299679756,
          0.08108726143836975,
          0.017207453027367592,
          -0.006597097963094711,
          0.025612015277147293,
          0.22037562727928162,
          -0.009007756598293781,
          0.18787044286727905,
          0.11122597008943558,
          -0.09925701469182968,
          0.14411889016628265,
          0.0824069231748581,
          -0.11506586521863937,
          -0.04758331924676895,
          -0.09114595502614975,
          0.13158787786960602,
          0.028069740161299706,
          0.07292678207159042,
          0.07020152360200882,
          0.00608060322701931,
          0.04047227278351784,
          -0.11258935928344727,
          -0.21543999016284943,
          -0.018427681177854538,
          -0.03549817204475403,
          -0.010633688420057297,
          0.039408281445503235,
          0.0577094666659832,
          0.023817606270313263,
          -0.0727832019329071,
          -0.09362687170505524,
          -0.032882459461688995,
          0.04321856424212456,
          0.07326612621545792,
          0.06534644216299057,
          0.11569971591234207,
          0.03150884062051773,
          0.045389432460069656,
          0.025826500728726387,
          -0.03910413011908531,
          -0.08700926601886749,
          0.15930907428264618,
          0.1324407458305359,
          -0.0033321792725473642,
          -0.24720469117164612,
          -0.062445852905511856,
          -0.10443472862243652,
          -0.006860113702714443,
          0.03417777642607689,
          0.09605903923511505,
          0.08358791470527649,
          -0.07576172798871994,
          -0.0012033781968057156,
          0.13097651302814484,
          -0.07135009765625,
          0.1589203029870987,
          0.026613811030983925,
          -0.05486711487174034,
          0.026010561734437943,
          -0.16419072449207306,
          -0.03603752329945564,
          -0.030818622559309006,
          -0.10285068303346634,
          0.0045721097849309444
        ],
        [
          -0.16972555220127106,
          -0.1931258738040924,
          -0.11808726191520691,
          0.04113669693470001,
          -0.09344704449176788,
          -0.14266987144947052,
          -0.0024119443260133266,
          0.04471152275800705,
          -0.09733836352825165,
          0.22158418595790863,
          -0.052104633301496506,
          0.04354454204440117,
          -0.06786923110485077,
          -0.21053066849708557,
          0.28340664505958557,
          -0.14554902911186218,
          0.08881580829620361,
          0.0102910827845335,
          0.17237502336502075,
          -0.13331584632396698,
          -0.11382806301116943,
          0.08804827928543091,
          0.14628028869628906,
          -0.07380302250385284,
          0.2923486828804016,
          0.07472451776266098,
          0.14107340574264526,
          -0.16847769916057587,
          0.07182730734348297,
          0.14700688421726227,
          0.2076774388551712,
          0.016667721793055534,
          -0.008274809457361698,
          -0.08952435106039047,
          -0.09606334567070007,
          -0.09284388273954391,
          -0.22557158768177032,
          -0.024987056851387024,
          0.16981780529022217,
          0.22284740209579468,
          0.16614139080047607,
          -0.2470822036266327,
          -0.1809491366147995,
          0.05106741562485695,
          0.3740125596523285,
          0.17149552702903748,
          0.25517573952674866,
          -0.049519091844558716,
          0.04910910874605179,
          -0.11973514407873154,
          -0.08108992129564285,
          0.06852008402347565,
          -0.007415091618895531,
          -0.34263020753860474,
          0.16566284000873566,
          -0.2417588233947754,
          -0.005644113291054964,
          -0.2984086275100708,
          0.12574303150177002,
          0.07113027572631836,
          0.07371869683265686,
          -0.10627592355012894,
          0.08628252148628235,
          0.2044341117143631
        ],
        [
          -0.2279384583234787,
          0.09009619057178497,
          -0.04233378544449806,
          0.0927237942814827,
          -0.007673271931707859,
          0.023751750588417053,
          -0.14418403804302216,
          0.10740553587675095,
          -0.09024113416671753,
          -0.14476948976516724,
          0.1097923219203949,
          0.10405843704938889,
          0.008413237519562244,
          -0.0883430689573288,
          0.05519706383347511,
          0.12423735111951828,
          -0.04932551085948944,
          -0.003911613952368498,
          0.03977302834391594,
          0.0181940458714962,
          0.1344815045595169,
          0.053959283977746964,
          -0.24490121006965637,
          0.07916376739740372,
          -0.15517091751098633,
          0.0441041961312294,
          -0.18224108219146729,
          0.050516851246356964,
          0.13838495314121246,
          0.08336712419986725,
          -0.11536474525928497,
          -0.17852500081062317,
          0.026490407064557076,
          0.1792737990617752,
          0.050404276698827744,
          0.024441182613372803,
          -0.05666240677237511,
          0.16649527847766876,
          0.13460905849933624,
          -0.08146223425865173,
          0.04633461311459541,
          0.06516111642122269,
          0.217184916138649,
          0.004678147379308939,
          -0.09072301536798477,
          0.042455319315195084,
          0.00794573687016964,
          0.14127635955810547,
          -0.05836046114563942,
          0.03235078230500221,
          0.13751398026943207,
          -0.19138619303703308,
          -0.08725044131278992,
          -0.04797770455479622,
          0.0688377171754837,
          0.09860144555568695,
          0.015929875895380974,
          0.07168708741664886,
          -0.1936228722333908,
          -0.23911872506141663,
          -0.04862749204039574,
          0.08811342716217041,
          0.1358311027288437,
          -0.16177691519260406
        ],
        [
          -0.0907740592956543,
          -0.10474229604005814,
          -0.14849624037742615,
          0.05309230834245682,
          -0.16323815286159515,
          -0.065836101770401,
          0.04770076647400856,
          0.024477824568748474,
          -0.24731525778770447,
          -0.0681658536195755,
          -0.172170028090477,
          0.011870172806084156,
          0.12023654580116272,
          0.08480652421712875,
          -0.010873832739889622,
          0.13745257258415222,
          0.08083721995353699,
          -0.06021210178732872,
          0.041697416454553604,
          0.0972776859998703,
          0.07954595983028412,
          0.05819227918982506,
          0.09321360290050507,
          0.26551809906959534,
          0.08280527591705322,
          0.5150021910667419,
          0.1493695080280304,
          -0.033919163048267365,
          0.1768910437822342,
          0.05818955972790718,
          0.5504587888717651,
          0.16863040626049042,
          -0.1877482384443283,
          -0.05530183017253876,
          -0.09866916388273239,
          -0.02081301435828209,
          -0.08061812818050385,
          -0.02327713742852211,
          0.043940819799900055,
          0.2416725903749466,
          0.2496461123228073,
          -0.0702599585056305,
          0.026266373693943024,
          0.14121143519878387,
          0.07488732784986496,
          0.1226150169968605,
          0.22952589392662048,
          0.3359117805957794,
          0.12253212928771973,
          -0.301261842250824,
          -0.09675781428813934,
          -0.009955177083611488,
          0.11179406940937042,
          -0.11782869696617126,
          -0.16695934534072876,
          -0.00914729293435812,
          0.06087144464254379,
          -0.09268303215503693,
          -0.08985385298728943,
          0.15382559597492218,
          -0.11757397651672363,
          -0.23308424651622772,
          0.11936936527490616,
          -0.007994381710886955
        ],
        [
          -0.3166368007659912,
          0.20895633101463318,
          0.03994879499077797,
          -0.11140371859073639,
          -0.19605393707752228,
          -0.026865985244512558,
          -0.10549712181091309,
          0.12385065853595734,
          -0.12714293599128723,
          -1.1397405862808228,
          0.16840288043022156,
          0.028636327013373375,
          -0.02792290598154068,
          0.08605018258094788,
          -0.15833836793899536,
          0.4789692461490631,
          0.049536313861608505,
          -0.08927268534898758,
          -0.16726061701774597,
          -0.1558329463005066,
          0.29527178406715393,
          0.06263845413923264,
          -0.9201201796531677,
          0.31561729311943054,
          -0.1221226155757904,
          0.059868987649679184,
          -0.198526069521904,
          0.3492680788040161,
          0.07801442593336105,
          0.056051239371299744,
          0.12970544397830963,
          -0.22656235098838806,
          0.05801832303404808,
          0.1511441469192505,
          0.26492488384246826,
          0.04894194379448891,
          0.21306218206882477,
          0.35389578342437744,
          0.04443778470158577,
          -0.06552411615848541,
          -0.03785605728626251,
          0.029931457713246346,
          0.42954665422439575,
          0.08058469742536545,
          -0.17370864748954773,
          -0.12021833658218384,
          -0.05309837684035301,
          0.04427559673786163,
          0.024155620485544205,
          -0.012219042517244816,
          0.3000216484069824,
          -0.2667333483695984,
          -0.1787155419588089,
          0.11704808473587036,
          -0.027499081566929817,
          0.17492444813251495,
          0.21512052416801453,
          -0.029536940157413483,
          -0.14868170022964478,
          -0.3090381622314453,
          -0.0006442539161071181,
          -0.013434195891022682,
          0.16962872445583344,
          -0.06744234263896942
        ],
        [
          -0.18639759719371796,
          -0.04985443502664566,
          -0.2420879453420639,
          -0.10395743697881699,
          -0.29945188760757446,
          -0.018894419074058533,
          0.04411062225699425,
          0.06651713699102402,
          -0.3378477692604065,
          -0.027536774054169655,
          0.0235140323638916,
          -0.06623249500989914,
          0.11814910173416138,
          0.27092716097831726,
          -0.03944029286503792,
          0.1938052922487259,
          -0.07986755669116974,
          -0.10551635175943375,
          -0.21657657623291016,
          0.1497715562582016,
          -0.0022222930565476418,
          -0.058579571545124054,
          -0.05123058706521988,
          0.1077699363231659,
          -0.07803335785865784,
          0.21659758687019348,
          0.10128363966941833,
          0.12307881563901901,
          0.08287383615970612,
          -0.004534214269369841,
          0.3083478510379791,
          -0.04776303470134735,
          -0.055187493562698364,
          -0.02256712317466736,
          0.08993572741746902,
          0.05148020014166832,
          0.02660265564918518,
          0.01857520453631878,
          -0.1045963391661644,
          -0.030953194946050644,
          0.11904370784759521,
          -0.06603791564702988,
          0.0905655175447464,
          0.05239105224609375,
          0.1448439359664917,
          -0.10483364015817642,
          -0.058714210987091064,
          0.38623958826065063,
          0.1796673983335495,
          -0.19262710213661194,
          -0.0055345878936350346,
          0.004445735365152359,
          0.04339771345257759,
          -0.025186356157064438,
          -0.26553604006767273,
          -0.05411617457866669,
          0.27106913924217224,
          -0.1626610904932022,
          -0.3250305950641632,
          0.013701409101486206,
          -0.0939846858382225,
          -0.14661169052124023,
          0.17617401480674744,
          -0.06287892162799835
        ],
        [
          -0.15396125614643097,
          -0.404602587223053,
          -0.09567023813724518,
          -0.07146812230348587,
          -0.03886702284216881,
          -0.28141269087791443,
          0.013467895798385143,
          -0.12766531109809875,
          -0.01049718726426363,
          0.13073500990867615,
          -0.14562392234802246,
          -0.06813564896583557,
          -0.28879600763320923,
          0.001192685798741877,
          -0.06443839520215988,
          -0.1689128428697586,
          0.15951716899871826,
          -0.024659346789121628,
          -0.024127734825015068,
          0.02569129504263401,
          0.03300997614860535,
          -0.0867852121591568,
          0.15182650089263916,
          -0.08693445473909378,
          -0.08901429921388626,
          0.13912665843963623,
          -0.22469107806682587,
          -0.05420462787151337,
          0.05351146683096886,
          -0.15511666238307953,
          -0.11676044017076492,
          -0.04964238777756691,
          -0.06363104283809662,
          -0.13688844442367554,
          -0.06324572116136551,
          -0.043402016162872314,
          -0.09155376255512238,
          -0.129312202334404,
          0.0910976231098175,
          -0.0032753373961895704,
          -0.03931368514895439,
          -0.07875840365886688,
          -0.11468107253313065,
          -0.14205944538116455,
          0.09943336248397827,
          -0.06983508914709091,
          -0.10622163861989975,
          0.14815637469291687,
          -0.07400539517402649,
          0.05188113823533058,
          0.21790459752082825,
          -0.09332220256328583,
          0.05141899362206459,
          -0.03481420502066612,
          -0.02904941327869892,
          -0.06868606805801392,
          -0.07689203321933746,
          -0.005092104896903038,
          0.053264789283275604,
          0.010008491575717926,
          -0.040437549352645874,
          -0.01261459942907095,
          0.1228189691901207,
          0.005965427495539188
        ],
        [
          -0.041409190744161606,
          -0.2762729823589325,
          -0.13855010271072388,
          -0.0739036425948143,
          -0.1228257566690445,
          -0.166591078042984,
          0.031994059681892395,
          -0.03546493500471115,
          -0.016454586759209633,
          0.0019062800565734506,
          -0.15336230397224426,
          -0.10470467805862427,
          -0.12157938629388809,
          -0.015780042856931686,
          -0.03623159974813461,
          -0.1499456763267517,
          0.0059585366398096085,
          0.023053528741002083,
          -0.00027410121401771903,
          -0.024867884814739227,
          -0.08511959761381149,
          -0.12247167527675629,
          0.1106332391500473,
          -0.15931646525859833,
          -0.11881498247385025,
          -0.09737756103277206,
          0.03262745961546898,
          -0.01778775453567505,
          -0.06731613725423813,
          -0.09483837336301804,
          -0.08092792332172394,
          -0.07630858570337296,
          0.09372500330209732,
          -0.20036156475543976,
          0.024474451318383217,
          -0.08548654615879059,
          -0.05938912555575371,
          -0.17426376044750214,
          0.10703661292791367,
          -0.13781259953975677,
          -0.053956154733896255,
          -0.10221057385206223,
          -0.1832711398601532,
          -0.1356579214334488,
          0.09971017390489578,
          -0.00965688843280077,
          0.002738204086199403,
          0.05883743613958359,
          -0.20980708301067352,
          -0.03181915730237961,
          0.07117524743080139,
          -0.09006203711032867,
          0.04332881048321724,
          -0.0610930509865284,
          0.10556530952453613,
          -0.052773598581552505,
          0.0342491939663887,
          -0.031974807381629944,
          -0.09943872690200806,
          -0.04135114327073097,
          0.016436204314231873,
          0.032621417194604874,
          -0.058715902268886566,
          0.10852447897195816
        ],
        [
          -0.08066241443157196,
          -0.10647156834602356,
          -0.052795518189668655,
          0.05785997211933136,
          -0.18443240225315094,
          -0.23240113258361816,
          -0.052017729729413986,
          0.036435239017009735,
          -0.16358071565628052,
          0.07971092313528061,
          -0.13584887981414795,
          -0.143339142203331,
          0.027533523738384247,
          -0.039529163390398026,
          0.13657957315444946,
          0.010088102892041206,
          0.1483524888753891,
          -0.023101823404431343,
          0.09677843004465103,
          -0.13818083703517914,
          0.1191210076212883,
          0.0926288589835167,
          -0.05577343702316284,
          0.04964190721511841,
          0.03433437645435333,
          0.2835293114185333,
          0.10107497870922089,
          0.010450388304889202,
          0.12625589966773987,
          0.14597056806087494,
          0.3096754848957062,
          0.13738246262073517,
          -0.11896976083517075,
          0.023306021466851234,
          0.010376155376434326,
          -0.0003515115240588784,
          -0.0014272506814450026,
          0.11268472671508789,
          -0.008913667872548103,
          0.08356408029794693,
          0.2643059492111206,
          -0.3057226538658142,
          0.0006642029620707035,
          0.07087811827659607,
          0.3176993131637573,
          0.23656834661960602,
          0.03687751665711403,
          0.07020437717437744,
          0.12705595791339874,
          -0.08605147898197174,
          -0.03687705472111702,
          -0.012404355220496655,
          0.10266444832086563,
          -0.1899585723876953,
          -0.012600830756127834,
          -0.1442016363143921,
          -0.02121552638709545,
          -0.06876832246780396,
          -0.06953708827495575,
          0.2033846229314804,
          0.015688497573137283,
          -0.13062363862991333,
          0.11112496256828308,
          0.12989214062690735
        ],
        [
          -0.023478331044316292,
          0.1545409858226776,
          0.1291293501853943,
          0.043761469423770905,
          0.17169110476970673,
          0.16007331013679504,
          0.0314113050699234,
          0.06080525368452072,
          0.11901453137397766,
          -0.06918852031230927,
          0.12298014760017395,
          0.12092095613479614,
          0.15698570013046265,
          -0.004038835410028696,
          0.028296032920479774,
          -0.017569364979863167,
          0.03774998337030411,
          -0.029786521568894386,
          0.1798166036605835,
          -0.12289142608642578,
          -0.07357192039489746,
          0.09249091148376465,
          -0.19738250970840454,
          0.13657580316066742,
          0.13583765923976898,
          -0.12945963442325592,
          0.038128070533275604,
          -0.10460767894983292,
          0.16104604303836823,
          -0.05077296867966652,
          0.07336445152759552,
          0.0646534115076065,
          0.061416760087013245,
          0.1704481840133667,
          -0.011849791742861271,
          -0.07592326402664185,
          0.09070723503828049,
          0.11795321851968765,
          -0.04531864821910858,
          -0.09656188637018204,
          0.04074830189347267,
          0.041256796568632126,
          0.23656654357910156,
          0.24563570320606232,
          -0.06945241242647171,
          0.07191953808069229,
          -0.04828974977135658,
          -0.03523223474621773,
          0.06445401906967163,
          -0.09222011268138885,
          -0.015201016329228878,
          0.04697873070836067,
          -0.055568140000104904,
          -0.046483371406793594,
          -0.1789563149213791,
          0.018796559423208237,
          0.0425666905939579,
          0.06594707816839218,
          -0.02597707509994507,
          -0.029530389234423637,
          -0.0503174252808094,
          -0.06676547974348068,
          0.09050542116165161,
          -0.07204820960760117
        ],
        [
          -0.029416579753160477,
          -0.1501661241054535,
          -0.09311145544052124,
          0.10393300652503967,
          -0.2195095717906952,
          -0.15935057401657104,
          -0.024569781497120857,
          -0.14514297246932983,
          -0.12646090984344482,
          0.17755265533924103,
          -0.1311936229467392,
          0.037926264107227325,
          -0.13870586454868317,
          -0.18651844561100006,
          0.06223750859498978,
          -0.11833417415618896,
          0.05989845097064972,
          -0.025196870788931847,
          0.015805257484316826,
          -0.1601046770811081,
          -0.01580384187400341,
          0.09907945245504379,
          0.1248595267534256,
          0.024652374908328056,
          0.21217040717601776,
          0.024705857038497925,
          -0.05450623854994774,
          -0.07969314604997635,
          -0.0990825667977333,
          0.10162397474050522,
          0.11813558638095856,
          0.15881165862083435,
          0.03903143107891083,
          -0.1349775642156601,
          -0.05379020422697067,
          0.007388545200228691,
          -0.08018062263727188,
          0.04187360405921936,
          -0.043356943875551224,
          0.34254926443099976,
          0.1129424050450325,
          -0.39385223388671875,
          -0.20125316083431244,
          0.07932297885417938,
          0.4521162807941437,
          0.4103494882583618,
          0.2345518171787262,
          0.060834210366010666,
          0.022441156208515167,
          -0.05825749412178993,
          -0.05175211280584335,
          0.1842820644378662,
          0.11820296943187714,
          -0.4271119236946106,
          0.0411951057612896,
          -0.21744343638420105,
          -0.03313285484910011,
          -0.4701143801212311,
          0.05611933395266533,
          -0.008889599703252316,
          0.13550855219364166,
          -0.07377544045448303,
          -0.09125939011573792,
          -0.0012079888256266713
        ],
        [
          0.04598022252321243,
          -0.1079653799533844,
          0.04857960715889931,
          -0.04796220734715462,
          0.01827250048518181,
          -0.21346375346183777,
          -0.10719409584999084,
          -0.04730875417590141,
          0.05005805566906929,
          0.015574499033391476,
          -0.06913842260837555,
          -0.058756664395332336,
          -0.10330753028392792,
          -0.0678749829530716,
          0.023222897201776505,
          0.07315587252378464,
          -0.023248830810189247,
          -0.03920873627066612,
          -0.025687269866466522,
          -0.09185244888067245,
          -0.059628237038850784,
          0.007880515418946743,
          0.07623010128736496,
          0.06099697947502136,
          0.06690321117639542,
          -0.025180736556649208,
          -0.0575682707130909,
          -0.025308119133114815,
          0.12629690766334534,
          0.12209207564592361,
          -0.00394724914804101,
          0.04405321180820465,
          0.11835053563117981,
          0.03987591713666916,
          0.06548695266246796,
          -0.10260779410600662,
          -0.05224943161010742,
          -0.0832715705037117,
          0.027609260752797127,
          -0.08602113276720047,
          -0.05658332258462906,
          -0.07690596580505371,
          -0.08397781848907471,
          0.06694870442152023,
          -0.011150387115776539,
          -0.020673653110861778,
          0.11372516304254532,
          -0.00311160902492702,
          0.0028332150541245937,
          0.07031954824924469,
          0.20592544972896576,
          -0.03834262862801552,
          0.002718025352805853,
          -0.11654214560985565,
          0.0018638065084815025,
          0.07475443929433823,
          0.08500879257917404,
          -0.11474322527647018,
          -0.09611163288354874,
          -0.13122908771038055,
          -0.06611675024032593,
          -0.042892422527074814,
          0.022177042439579964,
          -0.12289877980947495
        ],
        [
          -0.058686062693595886,
          0.2711295187473297,
          -0.25888821482658386,
          -0.3359549641609192,
          -0.10758338868618011,
          0.4464976191520691,
          0.07672619074583054,
          -0.050968144088983536,
          -0.03547624126076698,
          -0.07199408113956451,
          -0.10704262554645538,
          -0.3005252182483673,
          0.19941294193267822,
          0.06072789803147316,
          -0.3347567915916443,
          0.0018941789167001843,
          -0.4964108169078827,
          -0.44280770421028137,
          0.12445887178182602,
          0.11866546422243118,
          0.15682446956634521,
          -0.11804661899805069,
          -0.15444624423980713,
          0.38018763065338135,
          -0.05507079139351845,
          0.07456797361373901,
          0.14105501770973206,
          -0.10240964591503143,
          0.0018924392061308026,
          0.15802638232707977,
          0.24063189327716827,
          -0.05702438950538635,
          -0.2923213243484497,
          0.18399597704410553,
          -0.03584928438067436,
          -0.008941140957176685,
          0.09773358702659607,
          0.10059020668268204,
          -0.3558957278728485,
          0.006656568497419357,
          0.1360945999622345,
          0.03633217513561249,
          0.13314728438854218,
          0.1898362934589386,
          -0.18111391365528107,
          -0.0331139974296093,
          -0.025029942393302917,
          0.22433191537857056,
          0.18607951700687408,
          -0.14775195717811584,
          -0.1574774980545044,
          0.06373196095228195,
          0.012849037535488605,
          -0.018186034634709358,
          -0.2999601364135742,
          0.17463503777980804,
          0.1603398621082306,
          -0.11570024490356445,
          -0.2598519027233124,
          0.04037484899163246,
          0.03006240911781788,
          0.04034113138914108,
          0.1684071272611618,
          0.10422652214765549
        ],
        [
          -0.22506767511367798,
          0.2088036686182022,
          0.15250374376773834,
          -0.01073009055107832,
          -0.20488931238651276,
          0.030814407393336296,
          -0.16263088583946228,
          0.15150587260723114,
          -0.15902331471443176,
          -0.7120583653450012,
          0.012406514957547188,
          0.004595687612891197,
          -0.06545916944742203,
          0.0525454506278038,
          -0.19640415906906128,
          0.29886525869369507,
          -0.01064271479845047,
          0.048683829605579376,
          -0.03312494605779648,
          -0.14927154779434204,
          0.3305836617946625,
          -0.09888089448213577,
          -0.7442834377288818,
          0.1884758025407791,
          -0.1722274273633957,
          -0.024311047047376633,
          -0.22143089771270752,
          0.09365180879831314,
          0.23113775253295898,
          0.05360205098986626,
          0.012410450726747513,
          -0.27082934975624084,
          -0.10550367832183838,
          0.10818209499120712,
          0.08273427188396454,
          0.2263382375240326,
          0.2333628088235855,
          0.1916482150554657,
          0.10188229382038116,
          -0.10497712343931198,
          -0.10085907578468323,
          0.09094633907079697,
          0.17706792056560516,
          0.10978417843580246,
          -0.0695776417851448,
          -0.1703736037015915,
          -0.15087798237800598,
          0.12718002498149872,
          -0.03295334801077843,
          0.029017072170972824,
          0.10307924449443817,
          -0.10606000572443008,
          -0.1627025008201599,
          -0.03836497291922569,
          -0.045716386288404465,
          0.20654627680778503,
          0.16733743250370026,
          0.14178621768951416,
          -0.18203647434711456,
          -0.2056039422750473,
          -0.022101467475295067,
          -0.11652717739343643,
          0.12200184166431427,
          -0.26276925206184387
        ],
        [
          -0.26917049288749695,
          0.09205367416143417,
          -0.1335899382829666,
          0.033141545951366425,
          -0.3320552408695221,
          0.030127491801977158,
          0.10637838393449783,
          -0.013202709145843983,
          -0.35274744033813477,
          -0.03163410350680351,
          -0.017596684396266937,
          -0.16308920085430145,
          0.11895747482776642,
          0.021008022129535675,
          0.06153717264533043,
          0.24613583087921143,
          -0.020121073350310326,
          -0.15077947080135345,
          -0.040076807141304016,
          0.09349192678928375,
          0.22811496257781982,
          0.06160413473844528,
          -0.12429757416248322,
          0.12849655747413635,
          0.2445947378873825,
          0.5076223015785217,
          0.13711033761501312,
          -0.05475948378443718,
          0.16390173137187958,
          0.09180352091789246,
          0.5947042107582092,
          0.12032461911439896,
          -0.08791760355234146,
          0.0076992930844426155,
          0.13958919048309326,
          -0.0039372253231704235,
          0.15022698044776917,
          -0.029997633770108223,
          -0.01933351159095764,
          0.08017463982105255,
          0.16074952483177185,
          -0.11627031117677689,
          -0.11180247366428375,
          0.1315302848815918,
          0.2908563017845154,
          0.21123629808425903,
          0.12458731234073639,
          0.33249515295028687,
          0.11070961505174637,
          -0.3256126940250397,
          0.07408947497606277,
          0.015541279688477516,
          0.008030559867620468,
          -0.2446662336587906,
          -0.14204664528369904,
          0.0667121633887291,
          0.19800691306591034,
          -0.11348191648721695,
          -0.2413758933544159,
          0.17033599317073822,
          0.00031240584212355316,
          -0.2224724441766739,
          0.09530774503946304,
          0.07100912183523178
        ],
        [
          -0.031517818570137024,
          -0.00807288195937872,
          -0.030511176213622093,
          -0.11994988471269608,
          -0.06165938824415207,
          -0.09741728007793427,
          -0.0406651608645916,
          -0.10124412178993225,
          -0.29374969005584717,
          -0.10921367257833481,
          -0.18757666647434235,
          -0.09264156967401505,
          0.02006768248975277,
          0.018437210470438004,
          -0.10845191776752472,
          0.13426335155963898,
          -0.09815161675214767,
          -0.04586516693234444,
          0.05126865208148956,
          -0.04103728011250496,
          0.010886071249842644,
          0.029413927346467972,
          0.11930134147405624,
          0.06697385013103485,
          0.12768638134002686,
          0.15161347389221191,
          -0.03624632954597473,
          0.0732157900929451,
          -0.007463695481419563,
          0.18669110536575317,
          0.2963799238204956,
          -0.03277347981929779,
          0.007322457153350115,
          0.1373823881149292,
          0.02086176909506321,
          -0.12800167500972748,
          0.042533233761787415,
          -0.09768857806921005,
          0.05051521584391594,
          0.03545856103301048,
          0.07603228092193604,
          0.006285964045673609,
          -0.008675413206219673,
          -0.023634351789951324,
          0.2103990763425827,
          0.08235340565443039,
          -0.06918414682149887,
          0.2791489064693451,
          0.10672327131032944,
          -0.16662156581878662,
          -0.09775324165821075,
          0.01650283858180046,
          -0.09276223182678223,
          0.07498644292354584,
          0.01158066000789404,
          -0.04060165211558342,
          0.18731263279914856,
          -0.05157708376646042,
          -0.08484748005867004,
          -0.05262329801917076,
          -0.052684783935546875,
          -0.04134264588356018,
          0.14544609189033508,
          0.05491357669234276
        ],
        [
          -0.0752505213022232,
          0.20694470405578613,
          0.11978845298290253,
          0.013941369019448757,
          -0.03358754515647888,
          0.11723592877388,
          -0.00473364070057869,
          0.1660984754562378,
          0.043441858142614365,
          -0.18914103507995605,
          0.05858506262302399,
          0.08975047618150711,
          0.008519712835550308,
          0.165587916970253,
          -0.0028840862214565277,
          0.056369103491306305,
          -0.037867337465286255,
          -0.11571726948022842,
          -0.15082474052906036,
          0.006626502610743046,
          0.12438676506280899,
          -0.04439900442957878,
          -0.04708949849009514,
          0.04480818286538124,
          -0.10912652313709259,
          0.003169952891767025,
          -0.0358259342610836,
          0.05778409540653229,
          0.14431419968605042,
          -0.06315074861049652,
          -0.07259359955787659,
          -0.02179868333041668,
          0.09690339118242264,
          0.18382395803928375,
          0.11537833511829376,
          0.07588045299053192,
          0.18605045974254608,
          0.1838485151529312,
          0.07625468820333481,
          -0.05249389633536339,
          -0.12751269340515137,
          0.002822589362040162,
          0.1537172794342041,
          0.11996635049581528,
          -0.16852419078350067,
          0.044735830277204514,
          0.00039149235817603767,
          0.026179872453212738,
          0.045478299260139465,
          -0.037803102284669876,
          0.15950511395931244,
          -0.04864540696144104,
          0.039047904312610626,
          -0.09702029824256897,
          -0.1007775366306305,
          0.18548984825611115,
          0.121731236577034,
          0.07245960831642151,
          -0.030539026483893394,
          -0.19248907268047333,
          -0.003959243651479483,
          -0.07782869040966034,
          -0.030222930014133453,
          -0.031027361750602722
        ],
        [
          -0.10483310371637344,
          -0.07543307542800903,
          -0.09111571311950684,
          0.06679420173168182,
          -0.02657267637550831,
          -0.2455030232667923,
          0.07719850540161133,
          -0.05454133078455925,
          -0.03842920809984207,
          0.3268834054470062,
          -0.11052942276000977,
          -0.0686936005949974,
          0.049349427223205566,
          -0.04499203339219093,
          0.12167555838823318,
          -0.048935115337371826,
          0.017599105834960938,
          0.03655392676591873,
          0.07232727855443954,
          0.03219776973128319,
          -0.17118100821971893,
          0.1114005595445633,
          0.0604364275932312,
          -0.22750556468963623,
          0.1550460159778595,
          -0.0017317349556833506,
          -0.04441749304533005,
          -0.048224445432424545,
          -0.029720881953835487,
          -0.05805498734116554,
          -0.04811922460794449,
          -0.07849659770727158,
          0.04861230030655861,
          -0.2246694415807724,
          -0.06340816617012024,
          -0.06550261378288269,
          -0.18571361899375916,
          -0.1372622698545456,
          -0.04051438719034195,
          0.06555067747831345,
          0.07329351454973221,
          -0.3061430752277374,
          -0.31995904445648193,
          0.04982543736696243,
          0.29267099499702454,
          0.13813167810440063,
          0.13145887851715088,
          0.10236847400665283,
          -0.11602386087179184,
          -0.058412451297044754,
          -0.12574519217014313,
          0.04635084047913551,
          0.08291668444871902,
          -0.2580166161060333,
          0.151577889919281,
          -0.2574978172779083,
          0.11433985084295273,
          -0.298037588596344,
          0.06417486816644669,
          0.08763880282640457,
          -0.04283039644360542,
          0.027384359389543533,
          -0.14132659137248993,
          0.06987322866916656
        ],
        [
          -0.2818584144115448,
          -0.008946775458753109,
          0.07326406240463257,
          0.04864639788866043,
          -0.2788691818714142,
          -0.1012805849313736,
          0.1387135088443756,
          0.0735139474272728,
          -0.19005782902240753,
          -0.13978831470012665,
          -0.10438575595617294,
          -0.12924052774906158,
          0.20749805867671967,
          0.04982122778892517,
          -0.042076487094163895,
          0.15223568677902222,
          -0.04573548957705498,
          -0.07429197430610657,
          0.049644313752651215,
          -0.10845649987459183,
          0.17359398305416107,
          -0.03326994925737381,
          -0.01772228069603443,
          -0.02394772134721279,
          0.15991991758346558,
          0.4042462408542633,
          0.20831246674060822,
          0.09051309525966644,
          0.19645655155181885,
          0.2461186945438385,
          0.4189818799495697,
          0.0816107988357544,
          -0.05240035802125931,
          0.12496517598628998,
          0.1628558337688446,
          0.003437112318351865,
          0.028716236352920532,
          0.009449278004467487,
          0.08128415793180466,
          -0.028217319399118423,
          0.1625038981437683,
          -0.16295507550239563,
          0.07626504451036453,
          0.18077857792377472,
          0.11208584904670715,
          0.12163085490465164,
          0.0941619798541069,
          0.11179333925247192,
          0.1918221116065979,
          -0.06180756911635399,
          0.08418066054582596,
          0.06956208497285843,
          0.03549470007419586,
          -0.1554882973432541,
          -0.08789291232824326,
          0.022199248895049095,
          0.10792715102434158,
          -0.007443966343998909,
          -0.32536110281944275,
          0.1839153915643692,
          -0.047707751393318176,
          0.014085435308516026,
          0.1806780844926834,
          0.1532244086265564
        ],
        [
          0.2960275113582611,
          0.3666781485080719,
          0.08948449790477753,
          -0.024777734652161598,
          0.2911262512207031,
          0.22683632373809814,
          0.13171005249023438,
          -0.14264987409114838,
          0.24886706471443176,
          0.10647694021463394,
          -0.07061473280191422,
          0.09790588915348053,
          0.11013370752334595,
          0.0686497911810875,
          -0.39741969108581543,
          0.003596717258915305,
          -0.45251551270484924,
          -0.25184035301208496,
          0.07049866765737534,
          0.06565403938293457,
          -0.21002544462680817,
          -0.20046333968639374,
          -0.11656751483678818,
          0.15942412614822388,
          -0.04406668245792389,
          0.025603948161005974,
          0.028040742501616478,
          -0.3153791129589081,
          0.049737598747015,
          -0.02940570004284382,
          0.07205676287412643,
          -0.02823205664753914,
          -0.02767147123813629,
          0.08693744242191315,
          -0.2505441904067993,
          0.003133956575766206,
          -0.02272493578493595,
          -0.03661010041832924,
          -0.41883188486099243,
          -0.06988612562417984,
          -0.04813527688384056,
          0.04505433887243271,
          0.17421387135982513,
          0.11997486650943756,
          -0.046251945197582245,
          0.06994754076004028,
          0.1823558211326599,
          0.03653125464916229,
          0.22852982580661774,
          0.10427850484848022,
          -0.12172561883926392,
          -0.026852205395698547,
          -0.012572931125760078,
          -0.12945784628391266,
          -0.20152762532234192,
          1.7958956959773786e-05,
          0.06444485485553741,
          0.054739851504564285,
          0.03517351672053337,
          0.00563089270144701,
          -0.12504485249519348,
          0.062128983438014984,
          -0.04162421077489853,
          -0.04501807317137718
        ],
        [
          -0.056071341037750244,
          -0.06246444210410118,
          -0.15519142150878906,
          0.03719571605324745,
          -0.2600718140602112,
          -0.07474072277545929,
          0.0492812879383564,
          0.07338850945234299,
          -0.45992591977119446,
          0.002007469767704606,
          -0.09527263045310974,
          -0.08521496504545212,
          0.2367650717496872,
          -0.004917596001178026,
          0.11418896913528442,
          0.04841103032231331,
          -0.12541507184505463,
          -0.09641923755407333,
          -0.06819389015436172,
          -0.030055025592446327,
          0.17846021056175232,
          -0.05780845880508423,
          -0.1362593173980713,
          0.25750672817230225,
          0.29668793082237244,
          0.4757630228996277,
          0.18423615396022797,
          0.02094295807182789,
          0.08701235800981522,
          0.04358045756816864,
          0.7179364562034607,
          0.08857814222574234,
          -0.10321231186389923,
          0.1484431028366089,
          -0.11342322081327438,
          0.04106326028704643,
          -0.010117705911397934,
          0.030561771243810654,
          0.04196900501847267,
          0.29121607542037964,
          0.300660103559494,
          -0.3043053448200226,
          -0.13542678952217102,
          0.3384835124015808,
          0.21268613636493683,
          0.08669688552618027,
          0.28923752903938293,
          0.4634477496147156,
          0.0949411615729332,
          -0.24653063714504242,
          -0.008983050473034382,
          0.026622626930475235,
          0.0894743949174881,
          -0.248067706823349,
          -0.04582400247454643,
          0.12470811605453491,
          0.17921799421310425,
          -0.07027094066143036,
          -0.1905437856912613,
          0.10487286746501923,
          0.030891716480255127,
          -0.14991214871406555,
          0.1460641771554947,
          0.13851328194141388
        ],
        [
          -0.1014089360833168,
          -0.11066021025180817,
          -0.12573474645614624,
          -0.09734492003917694,
          -0.24144603312015533,
          0.08083314448595047,
          -0.037747886031866074,
          -0.07841051369905472,
          -0.13348481059074402,
          -0.003980844747275114,
          -0.037628818303346634,
          -0.03209339454770088,
          -0.039524853229522705,
          -0.01208038255572319,
          0.05959579721093178,
          0.10278500616550446,
          0.09732355922460556,
          0.014757867902517319,
          0.06889314949512482,
          -0.016547124832868576,
          0.03424124792218208,
          0.04019303247332573,
          -0.15844039618968964,
          0.07832080870866776,
          0.07983364909887314,
          0.08852419257164001,
          -0.1023198664188385,
          0.06980442255735397,
          0.11200790107250214,
          0.14480531215667725,
          0.1596897840499878,
          0.0035629579797387123,
          -0.00430468562990427,
          -0.14257612824440002,
          -0.08799342066049576,
          0.10759790241718292,
          -0.013402633368968964,
          0.1481924206018448,
          0.056905634701251984,
          0.18945182859897614,
          0.22768844664096832,
          0.00576527277007699,
          0.030038610100746155,
          0.16575953364372253,
          0.08763935416936874,
          0.0453525185585022,
          0.09420548379421234,
          0.15843097865581512,
          0.1924169510602951,
          -0.00965026393532753,
          -0.06643787771463394,
          -0.012313310988247395,
          -0.07621552050113678,
          -0.022651683539152145,
          -0.10870807617902756,
          -0.15826702117919922,
          0.12842395901679993,
          -0.06421907991170883,
          -0.10850962996482849,
          -0.08216767758131027,
          -0.09578586369752884,
          -0.022594457492232323,
          -0.12120173871517181,
          0.13967446982860565
        ],
        [
          0.2565869688987732,
          0.25674912333488464,
          0.07508457452058792,
          0.16581402719020844,
          0.2026236653327942,
          0.3240089416503906,
          0.19622428715229034,
          -0.13335804641246796,
          0.2208532840013504,
          0.05353527143597603,
          0.007879731245338917,
          0.12619681656360626,
          0.017602600157260895,
          0.006341674365103245,
          -0.267150342464447,
          -0.016335628926753998,
          -0.2114795297384262,
          -0.10703147202730179,
          0.10256180912256241,
          0.2666946351528168,
          -0.07264742255210876,
          -0.23841649293899536,
          -0.10150608420372009,
          -0.019563687965273857,
          -0.13048604130744934,
          -0.058337777853012085,
          0.15838927030563354,
          -0.1518954336643219,
          -0.031160200014710426,
          -0.05842839553952217,
          -0.13957759737968445,
          0.06760113686323166,
          0.04879463464021683,
          0.06253822892904282,
          0.0400921106338501,
          0.01731363870203495,
          0.20714829862117767,
          0.08211750537157059,
          -0.17008918523788452,
          0.013822441920638084,
          -0.10912847518920898,
          0.22531293332576752,
          0.16673175990581512,
          -0.03114183060824871,
          -0.15799778699874878,
          -0.1577000766992569,
          -0.07485924661159515,
          -0.022491781041026115,
          0.13571667671203613,
          0.02399810403585434,
          0.01326016616076231,
          -0.02675013616681099,
          0.043415747582912445,
          0.1664918065071106,
          -0.19871722161769867,
          0.10912719368934631,
          0.041456304490566254,
          0.1707710474729538,
          0.10905057936906815,
          -0.020885009318590164,
          -0.05866106599569321,
          0.015893882140517235,
          -0.009495279751718044,
          0.1235428899526596
        ],
        [
          -0.024400267750024796,
          -0.2562275528907776,
          -0.14214596152305603,
          0.11791860312223434,
          -0.052773334085941315,
          -0.01778242364525795,
          0.006147103849798441,
          -0.1623428761959076,
          -0.032956697046756744,
          0.36399129033088684,
          0.010011744685471058,
          0.008675490505993366,
          -0.13094556331634521,
          -0.12569712102413177,
          0.21208512783050537,
          -0.22579853236675262,
          0.10014920681715012,
          -0.008208921179175377,
          0.03921310603618622,
          -0.01728489249944687,
          -0.1909397691488266,
          0.025896282866597176,
          0.2620152533054352,
          -0.11292782425880432,
          0.13945600390434265,
          -0.052072688937187195,
          0.09750871360301971,
          -0.1126774400472641,
          -0.11511845141649246,
          0.024776823818683624,
          -0.017928343266248703,
          -0.042461808770895004,
          -0.014547153376042843,
          -0.1388612538576126,
          -0.17692312598228455,
          -0.00034217251231893897,
          -0.2300507128238678,
          -0.01778809353709221,
          0.15341351926326752,
          0.14825701713562012,
          0.049921441823244095,
          -0.2921430766582489,
          -0.16185463964939117,
          0.07808741927146912,
          0.33851540088653564,
          0.20357263088226318,
          0.18847480416297913,
          0.11956135183572769,
          0.028569718822836876,
          -0.06127498671412468,
          -0.2010696530342102,
          0.08729961514472961,
          0.12575019896030426,
          -0.07627498358488083,
          -0.009376888163387775,
          -0.0895533338189125,
          -0.053056951612234116,
          -0.2765609920024872,
          0.16702035069465637,
          -0.07520515471696854,
          0.10097571462392807,
          -0.033993128687143326,
          -0.12766629457473755,
          0.11347202211618423
        ],
        [
          -0.07897894084453583,
          0.38511571288108826,
          -0.18888671696186066,
          -0.22436262667179108,
          0.02455870993435383,
          0.4170799255371094,
          0.053068649023771286,
          -0.17747962474822998,
          0.018574444577097893,
          -0.005088777747005224,
          -0.24222561717033386,
          -0.2755002975463867,
